{
  "num_layers": 3,
  "layers": [
    {
      "type": "dense",
      "in_features": 4,
      "out_features": 8,
      "weights": [
        -1.0179537534713745,
        -0.9475932717323303,
        1.9907170534133911,
        3.6433193683624268,
        0.48743075132369995,
        -0.09347403794527054,
        -0.4276207685470581,
        -3.359483480453491,
        -0.12525318562984467,
        0.12700672447681427,
        0.5613384246826172,
        2.857856273651123,
        0.5678643584251404,
        -0.05682884529232979,
        -0.0996885746717453,
        -1.9824395179748535,
        -0.17946606874465942,
        -0.20166143774986267,
        0.9805884957313538,
        0.6153489351272583,
        -0.39205530285835266,
        -0.3790176510810852,
        0.7688450217247009,
        -0.2772570252418518,
        0.3607476055622101,
        0.06609819829463959,
        -0.2194519191980362,
        -1.1981372833251953,
        -0.30512282252311707,
        -0.4132162034511566,
        0.7157627940177917,
        0.5655555725097656
      ],
      "biases": [
        -0.7695808410644531,
        0.4338887333869934,
        0.8941444158554077,
        0.3905273675918579,
        -0.22600120306015015,
        0.08060627430677414,
        -0.33241263031959534,
        -0.04520208388566971
      ],
      "activation": "RELU"
    },
    {
      "type": "dense",
      "in_features": 8,
      "out_features": 8,
      "weights": [
        0.8501565456390381,
        -0.3978576064109802,
        -0.07039596885442734,
        0.1273997575044632,
        1.1675047874450684,
        -0.5001586079597473,
        0.849104642868042,
        -0.5734288096427917,
        -0.019852401688694954,
        -0.0047920518554747105,
        0.0010161438258364797,
        0.01747397892177105,
        -0.05092467740178108,
        0.036187030375003815,
        -0.003644447075203061,
        -0.005895428359508514,
        -0.056985337287187576,
        -1.4226375818252563,
        0.0326644703745842,
        -0.1959403157234192,
        -3.1815152168273926,
        4.038208484649658,
        8.850010871887207,
        1.288524866104126,
        0.011518496088683605,
        -0.02774827368557453,
        -0.023104488849639893,
        -0.01625610701739788,
        0.007407546043395996,
        -0.04761568084359169,
        -0.01804346963763237,
        0.0067944955080747604,
        0.37406477332115173,
        0.06829596310853958,
        0.5426474213600159,
        0.3166169226169586,
        0.5414618849754333,
        -0.4315018355846405,
        -0.0868237167596817,
        0.40178415179252625,
        0.3914225399494171,
        -0.7176581025123596,
        -0.46258458495140076,
        0.7175396084785461,
        -0.002365824533626437,
        -0.057698994874954224,
        -0.08838259428739548,
        0.3309129774570465,
        -0.04813302308320999,
        -0.04145578294992447,
        0.0045208195224404335,
        0.019927438348531723,
        -0.07190436869859695,
        0.007064513396471739,
        0.01028377003967762,
        0.0025527081452310085,
        -0.3195081949234009,
        0.11240106076002121,
        0.5438924431800842,
        0.16981911659240723,
        0.1815655380487442,
        -0.3363949656486511,
        0.18626946210861206,
        0.10532738268375397
      ],
      "biases": [
        -0.10323871672153473,
        -0.04633820056915283,
        -0.10665597021579742,
        -0.05549012869596481,
        -0.42713043093681335,
        0.2189616709947586,
        -0.07603099942207336,
        -0.697776198387146
      ],
      "activation": "RELU"
    },
    {
      "type": "dense",
      "in_features": 8,
      "out_features": 1,
      "weights": [
        0.16045324504375458,
        -0.043299175798892975,
        -0.01459870021790266,
        -0.42034435272216797,
        0.2267330437898636,
        -0.5234946608543396,
        -0.08050995320081711,
        0.0674322098493576
      ],
      "biases": [
        -0.032967254519462585
      ],
      "activation": "NONE"
    }
  ],
  "nn_input_var": [
    "engine_speed_rads",
    "boost_pressure",
    "rear_wheelspeed_ms",
    "torque_cmd"
  ],
  "nn_input_scaling": [
    300.0,
    15.0,
    15.0,
    2000.0
  ],
  "description": {
    "rear_wheelspeed_ms_unscaled": "Average (wrl + wrr) / 2, Rear wheel speed in radians per second",
    "engine_speed_rads_unscaled": "Engine speed in radians per second",
    "boost_pressure_unscaled": "Boost pressure (Beamng Units)",
    "throttle_unscaled": "Throttle (0,1)",
    "nn_input": "Scaled Quantities of nn_input_var, Find scaling factor (as divider term) in Json, nn_input_scaling",
    "torque_cmd": "Torque command to apply to inverse to obtain FF throttle",
    "model_name": "rl_arata_engine_models/engine_control_with_torque_ppo_____________________________ at step -2"
  }
}