{
  "num_layers": 2,
  "layers": [
    {
      "type": "dense",
      "in_features": 5,
      "out_features": 6,
      "weights": [
        1.0586906671524048,
        -0.46179527044296265,
        -0.23466262221336365,
        0.6343675255775452,
        -0.71996009349823,
        0.002160588512197137,
        -0.6086858510971069,
        -0.031695492565631866,
        -1.4721170663833618,
        1.254370927810669,
        0.9772489666938782,
        0.9462113976478577,
        -0.24704578518867493,
        -0.05266452953219414,
        -0.27902594208717346,
        -0.6454426646232605,
        -0.2270185798406601,
        -1.1126233339309692,
        -0.37262213230133057,
        -0.08594918251037598,
        0.3348519206047058,
        0.14938238263130188,
        -0.7980496883392334,
        -0.3547462821006775,
        0.9933241605758667,
        0.16841669380664825,
        -0.38106831908226013,
        -0.7129058241844177,
        -0.5280255675315857,
        0.232823446393013
      ],
      "biases": [
        -0.7556326389312744,
        -0.16646187007427216,
        -0.2757469117641449,
        0.0,
        -0.03750622272491455,
        -0.20720195770263672
      ],
      "activation": "RELU"
    },
    {
      "type": "dense",
      "in_features": 6,
      "out_features": 2,
      "weights": [
        -1.091384768486023,
        0.07618311047554016,
        -0.4305174648761749,
        -0.8062861561775208,
        -0.16955596208572388,
        -0.20692265033721924,
        0.3641584813594818,
        -0.4117933511734009,
        0.20517201721668243,
        -0.5809518694877625,
        -0.4351915717124939,
        0.18415524065494537
      ],
      "biases": [
        1.4671615362167358,
        1.187138319015503
      ],
      "activation": "NONE"
    }
  ]
}
